0.348217591393
0.0759582501937
0.40094552182
2.3545077606
0.258751128749
0.365902257642
0.109717889959
-0.00813143827646
-0.113518124827
0.0652469021606
0.0552425644387
-0.0959704618639
-0.0342478824812
-0.195877473994
-0.0806360565078
-0.219729067605
-0.229249612102
-0.0941745520037
-0.122547561304
-0.148265056519
-0.251136831514
-0.187791515027
0.00421733676434
0.00737264679828
0.22854426634
0.181872110894
-0.234378438588
0.212681140302
-0.636264062091
0.191884326244
-0.0639691077307
-0.356705869216
0.0441230355563
0.588697947021
-0.121073536023
-0.712568581816
-0.205373617788
-0.158052100575
-0.042679058242
-0.021632765434
-0.0206270211934
0.213646458979
-0.190995499714
-0.16319886885
-0.100199296465
-0.288099511898
-0.287326258054
0.124905315705
0.0607708363694
0.0448879373511
0.0861983492789
-0.0534248340803
-0.0812992803278
-0.0447109276619
0.215710926844
-0.0779667967453
-0.267354638617
0.113242107601
0.269205043309
-0.0458998945067
-0.00228930893722
-0.0261984554938
-0.0356396359486
0.034200449829
0.0684460869914
0.0853588804349
-0.0239862930399
-0.11178690172
